// #### Created By: http://www.cufonfonts.com ####
/*!
 * The following copyright notice may not be removed under any circumstances.
 * 
 * Copyright:
 * Copyright (c) 2005, Mark Simonson. All rights reserved.
 * 
 * Trademark:
 * Anonymous is a trademark of the Mark Simonson.
 */
Cufon.registerFont({"w":734,"face":{"font-family":"AnonymousRegular","font-weight":400,"font-stretch":"normal","units-per-em":"1100","panose-1":"2 0 4 9 0 0 0 0 0 0","ascent":"880","descent":"-220","x-height":"17","bbox":"-41 -1100 734 244.502","underline-thickness":"0","underline-position":"1","unicode-range":"U+0020-U+20AC"},"glyphs":{" ":{},"!":{"d":"368,-852r-34,611r-53,0r-34,-611r121,0xm365,0r-120,0r0,-119r120,0r0,119"},"\"":{"d":"491,-855r-28,305r-65,0r-28,-305r121,0xm245,-855r-28,305r-65,0r-28,-305r121,0"},"#":{"d":"612,-392r-148,0r0,148r-73,0r0,-148r-170,0r0,148r-73,0r0,-148r-148,0r0,-73r148,0r0,-170r-148,0r0,-72r148,0r0,-148r73,0r0,148r170,0r0,-148r73,0r0,148r148,0r0,72r-148,0r0,170r148,0r0,73xm391,-465r0,-170r-170,0r0,170r170,0"},"$":{"d":"353,-476v138,50,232,103,237,253v4,129,-112,227,-237,235r0,111r-92,0r0,-112v-137,-17,-238,-107,-262,-235r86,-22v22,100,81,159,176,176r0,-344v-138,-51,-233,-92,-233,-238v0,-125,108,-210,233,-217r0,-109r92,0r0,112v122,17,218,109,231,229r-93,16v-12,-90,-58,-144,-138,-163r0,308xm261,-789v-111,3,-192,145,-99,223v21,19,54,37,99,55r0,-278xm353,-67v81,-9,139,-63,139,-148v0,-70,-46,-125,-139,-164r0,312"},"%":{"d":"151,-871v89,0,165,77,165,166v0,88,-77,165,-165,165v-89,0,-166,-76,-166,-165v0,-90,76,-166,166,-166xm612,-835r-549,854r-61,-40r549,-855xm464,-315v89,0,166,76,166,165v0,90,-76,166,-166,166v-90,0,-166,-76,-166,-166v0,-89,77,-165,166,-165xm151,-606v53,0,98,-46,98,-99v0,-53,-45,-99,-98,-99v-53,0,-99,46,-99,99v0,53,46,99,99,99xm464,-51v53,0,99,-46,99,-99v0,-53,-46,-99,-99,-99v-53,0,-99,46,-99,99v0,53,46,99,99,99"},"&":{"d":"229,-872v122,0,212,75,212,191v0,60,-24,111,-71,153v-12,11,-61,43,-147,97v37,39,115,113,236,224v40,-57,68,-119,83,-186r86,22v-15,75,-50,149,-106,222r106,97r-62,71r-104,-101v-71,65,-150,97,-235,97v-129,0,-244,-108,-244,-234v0,-93,39,-169,117,-228v-58,-71,-87,-140,-87,-206v-2,-132,86,-219,216,-219xm229,-792v-75,0,-124,65,-123,139v0,53,21,107,62,160v68,-41,109,-67,124,-80v37,-32,56,-69,56,-110v0,-65,-51,-109,-119,-109xm81,-219v0,82,63,146,146,146v63,0,121,-23,173,-69r-244,-240v-50,45,-75,99,-75,163"},"'":{"d":"369,-856r-27,305r-66,0r-28,-305r121,0"},"(":{"d":"200,-372v0,244,115,438,263,557r-48,59v-164,-132,-292,-345,-292,-616v0,-268,129,-484,292,-615r48,59v-148,119,-263,312,-263,556"},")":{"d":"198,-986v165,131,292,345,292,615v0,269,-128,485,-292,615r-48,-59v148,-119,264,-312,264,-556v0,-242,-116,-438,-264,-556"},"*":{"d":"589,-671r-225,121r225,122r-37,63r-217,-134r7,255r-73,0r8,-255r-218,134r-36,-63r224,-122r-224,-121r36,-63r218,134r-8,-255r73,0r-7,255r217,-134"},"+":{"d":"611,-391r-269,0r0,269r-73,0r0,-269r-269,0r0,-73r269,0r0,-269r73,0r0,269r269,0r0,73"},",":{"d":"401,-242r-180,367r-64,0r123,-367r121,0"},"-":{"d":"489,-392r-367,0r0,-73r367,0r0,73"},".":{"d":"365,4r-120,0r0,-120r120,0r0,120"},"\/":{"d":"655,-855r-503,1013r-65,-33r503,-1013"},"0":{"d":"307,-871v225,0,329,194,329,444v0,98,-15,182,-46,251r53,57r0,105r-90,-96v-59,84,-141,126,-246,126v-224,0,-328,-194,-328,-443v0,-96,14,-178,43,-247r-50,-54r-1,-105r87,92v59,-87,142,-130,249,-130xm544,-427v1,-198,-63,-364,-237,-364v-82,0,-144,39,-186,117r400,425v15,-54,23,-113,23,-178xm70,-427v-1,197,64,363,237,363v81,0,142,-37,184,-112r-399,-424v-15,52,-22,110,-22,173"},"1":{"d":"488,0r-367,0r0,-79r138,0r0,-605v-25,49,-71,74,-138,74r0,-93v92,0,138,-51,138,-152r91,0r0,776r138,0r0,79"},"2":{"d":"298,-871v148,0,286,95,279,237v-7,141,-57,171,-156,275r-82,85r-197,195r352,0r0,-160r80,0r0,239r-551,0r0,-79r333,-339v74,-76,121,-116,128,-217v6,-92,-90,-156,-186,-156v-133,0,-209,93,-208,229r-86,0v-1,-189,105,-309,294,-309"},"3":{"d":"419,-453v92,-2,185,119,185,217v0,143,-130,254,-279,252v-176,-3,-294,-101,-308,-264r87,-14v10,118,95,196,221,198v96,2,190,-79,186,-171v-6,-137,-78,-166,-247,-162r0,-92v131,-1,226,-36,231,-146v4,-94,-73,-156,-170,-156v-128,0,-209,77,-208,205r-87,0v-2,-176,118,-285,295,-285v150,0,260,92,263,237v2,96,-78,182,-169,181"},"4":{"d":"611,0r-367,0r0,-79r137,0r0,-170r-381,0r0,-80r357,-526r116,0r0,526r138,0r0,80r-138,0r0,170r138,0r0,79xm381,-329r0,-418r-285,418r285,0"},"5":{"d":"314,-587v184,-2,309,117,309,301v0,165,-147,308,-314,305v-172,-3,-286,-109,-299,-271r87,-14v10,117,90,204,212,206v121,2,221,-103,221,-225v0,-131,-84,-227,-216,-227v-85,0,-151,28,-198,83r-80,0r0,-426r539,0r0,79r-459,0r0,264v52,-50,118,-75,198,-75"},"6":{"d":"314,-602v179,0,306,132,306,311v0,185,-133,312,-322,307v-222,-5,-313,-193,-313,-443v0,-249,117,-444,344,-444v85,0,156,29,213,88r-63,56v-85,-96,-256,-79,-330,21v-46,63,-72,148,-72,259v21,-77,137,-155,237,-155xm298,-64v141,0,231,-88,231,-227v0,-134,-84,-232,-215,-232v-130,0,-223,93,-223,223v0,134,77,236,207,236"},"7":{"d":"260,0v1,-356,80,-595,257,-776r-399,0r0,166r-80,0r0,-245r566,0r0,79v-186,195,-248,395,-250,776r-94,0"},"8":{"d":"433,-453v93,-2,188,114,185,212v-5,167,-141,258,-321,258v-179,0,-299,-88,-303,-258v-3,-99,91,-213,185,-212v-78,3,-154,-102,-154,-182v0,-147,127,-236,281,-236v154,0,281,89,281,236v0,81,-76,185,-154,182xm306,-792v-108,0,-188,55,-188,156v0,89,62,145,188,145v126,0,188,-56,188,-145v0,-101,-80,-156,-188,-156xm297,-62v122,0,227,-67,228,-178v1,-118,-92,-172,-219,-172v-127,0,-220,54,-219,172v1,114,89,178,210,178"},"9":{"d":"314,-871v224,5,314,193,314,444v0,248,-117,443,-344,443v-85,0,-157,-29,-214,-88r64,-56v85,96,256,79,330,-21v46,-63,72,-148,72,-259v-21,77,-137,155,-237,155v-181,0,-306,-132,-306,-311v0,-185,132,-311,321,-307xm299,-332v130,0,223,-93,223,-223v0,-134,-77,-236,-208,-236v-141,0,-230,88,-230,227v0,134,84,232,215,232"},":":{"d":"365,-489r-120,0r0,-119r120,0r0,119xm365,4r-120,0r0,-120r120,0r0,120"},";":{"d":"365,-489r-120,0r0,-119r120,0r0,119xm401,-241r-180,367r-64,0r123,-367r121,0"},"<":{"d":"518,-144r-52,52r-335,-335r335,-336r52,52r-284,284"},"=":{"d":"611,-539r-611,0r0,-72r611,0r0,72xm611,-245r-611,0r0,-73r611,0r0,73"},">":{"d":"481,-427r-336,335r-51,-52r284,-283r-284,-284r51,-52"},"?":{"d":"358,-871v142,-2,238,78,239,213v1,187,-252,236,-255,419r-96,0v0,-59,21,-117,67,-170v59,-69,191,-150,191,-251v0,-87,-49,-131,-146,-131v-101,1,-158,76,-161,180r-87,-22v16,-144,97,-236,248,-238xm365,0r-120,0r0,-119r120,0r0,119"},"@":{"d":"306,-871v226,0,329,194,329,443v0,84,-13,148,-39,193v-22,37,-49,55,-81,55v-60,0,-89,-62,-80,-136v-30,83,-82,125,-155,125v-112,1,-170,-101,-170,-223v0,-134,80,-247,210,-244v37,0,75,16,115,47r0,-36r67,0r0,375v0,20,9,30,26,30v15,0,28,-13,39,-39v13,-33,20,-82,20,-147v1,-225,-79,-404,-281,-404v-201,0,-281,180,-281,404v0,224,80,403,281,403v72,0,131,-24,178,-71r35,25v-57,57,-128,86,-213,86v-226,0,-329,-195,-329,-443v0,-249,103,-443,329,-443xm280,-254v134,0,166,-138,155,-290v-39,-41,-77,-61,-115,-61v-94,-2,-143,89,-143,191v0,84,30,160,103,160"},"A":{"d":"653,0r-97,0r-80,-245r-339,0r-79,245r-98,0r286,-855r122,0xm450,-324r-143,-440r-144,440r287,0"},"B":{"d":"266,-856v195,-3,314,53,314,223v0,89,-44,150,-132,182v108,34,162,103,162,206v0,163,-110,245,-329,245r-249,0r0,-856r234,0xm266,-489v135,2,218,-30,222,-144v5,-161,-194,-146,-364,-144r0,288r142,0xm518,-245v0,-110,-79,-165,-237,-165r-157,0r0,330r157,0v158,0,237,-55,237,-165"},"C":{"d":"79,-428v0,198,65,364,237,364v109,0,181,-65,216,-194r85,33v-42,138,-137,240,-301,240v-226,0,-328,-195,-328,-443v0,-249,102,-443,328,-443v105,0,177,38,214,115r0,-100r80,0r0,282r-80,0v4,-124,-94,-220,-214,-218v-172,3,-237,167,-237,364"},"D":{"d":"311,-856v223,4,329,183,329,428v0,245,-106,428,-329,428r-279,0r0,-856r279,0xm311,-80v169,-5,237,-155,237,-348v0,-194,-67,-349,-237,-349r-188,0r0,697r188,0"},"E":{"d":"580,0r-550,0r0,-856r550,0r0,79r-459,0r0,300r338,0r0,80r-338,0r0,317r459,0r0,80"},"F":{"d":"580,-777r-459,0r0,300r338,0r0,80r-338,0r0,397r-91,0r0,-856r550,0r0,79"},"G":{"d":"79,-428v0,198,65,364,237,364v158,0,222,-138,234,-304r-190,0r0,-79r285,0v7,261,-97,462,-329,462v-226,0,-328,-195,-328,-443v0,-249,102,-443,328,-443v105,0,177,38,214,115r0,-100r80,0r0,282r-80,0v4,-124,-94,-220,-214,-218v-172,3,-237,167,-237,364"},"H":{"d":"580,0r-92,0r0,-397r-367,0r0,397r-91,0r0,-856r91,0r0,379r367,0r0,-379r92,0r0,856"},"I":{"d":"489,0r-367,0r0,-80r138,0r0,-697r-138,0r0,-79r367,0r0,79r-138,0r0,697r138,0r0,80"},"J":{"d":"298,-64v159,0,190,-116,191,-299r0,-493r92,0r0,493v0,252,-94,378,-283,378v-162,0,-260,-103,-301,-240r86,-33v35,129,107,194,215,194"},"K":{"d":"608,-1r-111,0r-285,-419r-91,101r0,318r-91,0r0,-856r91,0r0,416r368,-416r119,0r-337,373"},"L":{"d":"580,0r-550,0r0,-856r91,0r0,776r459,0r0,80"},"M":{"d":"580,0r-92,0r0,-715r-151,443r-64,0r-152,-443r0,715r-91,0r0,-856r119,0r156,447r156,-447r119,0r0,856"},"N":{"d":"580,0r-113,0r-346,-724r0,724r-91,0r0,-856r128,0r330,691r0,-691r92,0r0,856"},"O":{"d":"306,-871v226,0,329,194,329,443v0,250,-103,443,-329,443v-226,0,-329,-195,-329,-443v0,-249,103,-443,329,-443xm306,-64v172,0,237,-166,237,-364v0,-198,-63,-364,-237,-364v-172,0,-237,167,-237,364v0,199,65,364,237,364"},"P":{"d":"604,-611v0,163,-109,244,-328,244r-158,0r0,367r-92,0r0,-856r250,0v219,0,328,82,328,245xm512,-611v0,-111,-79,-166,-236,-166r-158,0r0,331r158,0v157,0,236,-55,236,-165"},"Q":{"d":"306,-871v226,0,329,195,329,443v0,234,-92,411,-285,440v12,128,114,163,261,151r0,78v-207,21,-346,-52,-362,-231v-184,-35,-272,-208,-272,-438v0,-249,103,-443,329,-443xm306,-65v172,0,237,-166,237,-363v0,-198,-64,-364,-237,-364v-172,0,-237,167,-237,364v0,198,64,363,237,363","w":733},"R":{"d":"618,0r-118,0r-250,-367r-132,0r0,367r-92,0r0,-856r250,0v219,0,328,82,328,245v0,143,-82,223,-245,240xm512,-611v0,-111,-79,-166,-236,-166r-158,0r0,331r158,0v157,0,236,-55,236,-165"},"S":{"d":"292,-792v-92,0,-170,58,-171,139v0,55,40,101,122,135r226,94v81,47,121,114,121,201v0,137,-125,238,-269,238v-100,0,-213,-62,-225,-139r0,124r-79,0r0,-259r79,0v0,108,108,195,225,195v101,0,171,-55,171,-151v0,-66,-38,-123,-120,-156r-223,-91v-81,-44,-121,-107,-121,-190v0,-133,121,-219,264,-219v85,0,196,64,198,137r0,-122r80,0r0,244r-80,0v3,-97,-98,-180,-198,-180"},"T":{"d":"612,-567r-80,0r0,-210r-180,0r0,697r137,0r0,80r-367,0r0,-80r138,0r0,-697r-181,0r0,210r-79,0r0,-289r612,0r0,289"},"U":{"d":"306,-64v159,0,190,-116,191,-299r0,-493r92,0r0,493v0,252,-94,378,-283,378v-188,0,-282,-126,-282,-378r0,-493r91,0r0,493v1,184,32,299,191,299"},"V":{"d":"653,-855r-286,855r-122,0r-285,-855r97,0r249,764r249,-764r98,0"},"W":{"d":"656,-855r-155,855r-105,0r-88,-418r-89,418r-105,0r-155,-855r97,0r121,703r86,-454r89,0r86,454r121,-703r97,0"},"X":{"d":"628,0r-244,0r0,-80r57,0r-133,-266r-133,266r57,0r0,80r-244,0r0,-80r85,0r183,-350r-181,-347r-71,0r0,-79r244,0r0,79r-71,0r131,263r132,-263r-71,0r0,-79r244,0r0,79r-72,0r-181,347r183,350r85,0r0,80"},"Y":{"d":"627,-777r-70,0r-203,407r0,290r137,0r0,79r-367,0r0,-79r138,0r0,-290r-203,-407r-71,0r0,-80r244,0r0,80r-73,0r148,310r2,0r147,-310r-72,0r0,-80r243,0r0,80"},"Z":{"d":"585,0r-551,0r0,-80r428,-697r-348,0r0,210r-80,0r0,-289r535,0r0,79r-427,697r363,0r0,-210r80,0r0,290"},"[":{"d":"489,244r-244,0r0,-1223r244,0r0,73r-172,0r0,1077r172,0r0,73"},"\\":{"d":"655,125r-65,33r-503,-1013r65,-33"},"]":{"d":"367,244r-245,0r0,-73r172,0r0,-1077r-172,0r0,-73r245,0r0,1223"},"^":{"d":"491,-366r-64,0r-120,-326r-120,326r-64,0r123,-490r121,0"},"_":{"d":"734,0r-734,0r0,-73r734,0r0,73"},"`":{"d":"454,-788r-26,43r-283,-160r43,-71"},"a":{"d":"1,-290v0,-189,125,-337,310,-337v65,0,125,22,180,65r0,-50r92,0r0,612r-92,0r0,-252v-17,118,-116,269,-235,269v-165,0,-255,-134,-255,-307xm256,-69v144,-1,252,-222,235,-400v-53,-56,-113,-84,-180,-84v-138,-2,-218,118,-218,263v0,121,52,222,163,221"},"b":{"d":"305,-627v187,0,310,135,310,322v0,187,-123,322,-310,322v-65,0,-125,-22,-180,-65r0,48r-92,0r0,-856r92,0r0,294v55,-43,115,-65,180,-65xm305,-57v139,0,218,-106,218,-248v0,-142,-79,-248,-218,-248v-67,0,-127,28,-180,84r0,328v53,56,113,84,180,84"},"c":{"d":"323,-57v90,0,172,-44,203,-102r63,44v-55,88,-144,132,-266,132v-188,0,-322,-135,-322,-322v0,-188,122,-322,310,-322v83,0,177,53,192,115r0,-100r80,0r0,244r-80,0v5,-97,-96,-185,-192,-185v-140,0,-219,105,-219,248v0,140,91,248,231,248"},"d":{"d":"-1,-305v0,-188,122,-322,310,-322v65,0,125,22,180,65r0,-215r-120,0r0,-79r212,0r0,856r-92,0r0,-48v-55,43,-115,65,-180,65v-188,0,-310,-134,-310,-322xm90,-305v0,143,79,248,219,248v67,0,127,-28,180,-84r0,-328v-53,-56,-113,-84,-180,-84v-140,0,-219,105,-219,248"},"e":{"d":"-2,-305v0,-187,123,-322,310,-322v203,0,312,142,310,353r-526,0v11,124,96,217,228,217v90,0,172,-44,203,-102r63,44v-55,88,-144,132,-266,132v-187,0,-322,-136,-322,-322xm522,-354v-19,-133,-91,-199,-214,-199v-125,-1,-200,83,-215,199r429,0"},"f":{"d":"611,-532r-258,0r0,452r138,0r0,80r-367,0r0,-80r138,0r0,-452r-138,0r0,-80r138,0v-8,-198,143,-277,349,-244r0,74v-150,-20,-265,17,-258,170r258,0r0,80"},"g":{"d":"2,-305v0,-188,122,-322,309,-322v65,0,125,22,181,65r0,-50r91,0r0,593v-1,163,-119,261,-291,261v-122,0,-211,-44,-266,-132r63,-43v31,58,113,101,203,101v139,0,212,-83,200,-232v-55,43,-116,65,-181,65v-189,0,-309,-119,-309,-306xm93,-305v0,141,79,234,218,233v67,0,128,-28,181,-85r0,-312v-53,-56,-114,-84,-181,-84v-139,0,-218,106,-218,248"},"h":{"d":"354,-540v-140,0,-235,121,-235,266r0,274r-91,0r0,-856r91,0r0,398v43,-113,121,-169,235,-169v150,0,225,83,225,250r0,377r-92,0r0,-377v0,-109,-44,-163,-133,-163"},"i":{"d":"366,-734r-121,0r0,-122r121,0r0,122xm489,0r-367,0r0,-80r138,0r0,-452r-138,0r0,-80r229,0r0,532r138,0r0,80"},"j":{"d":"489,-734r-121,0r0,-122r121,0r0,122xm228,168v115,0,154,-64,154,-187r0,-513r-137,0r0,-80r229,0r0,593v1,161,-88,262,-246,261v-107,0,-182,-45,-225,-134r68,-41v32,67,84,101,157,101"},"k":{"d":"610,0r-128,0r-249,-274r-110,101r0,173r-91,0r0,-856r91,0r0,574r347,-330r129,0r-306,282"},"l":{"d":"490,0r-367,0r0,-80r137,0r0,-697r-137,0r0,-79r229,0r0,776r138,0r0,80"},"m":{"d":"461,-627v117,0,150,77,150,207r0,420r-91,0r0,-420v0,-80,-23,-120,-70,-120v-67,0,-100,65,-100,194r0,346r-91,0r0,-420v0,-80,-24,-120,-71,-120v-89,0,-95,85,-95,194r0,346r-91,0r0,-612r91,0r0,89v25,-136,207,-137,241,-13v30,-61,72,-91,127,-91"},"n":{"d":"359,-540v-140,0,-234,122,-234,266r0,274r-92,0r0,-612r92,0r0,154v43,-113,121,-169,234,-169v151,0,226,83,226,250r0,377r-92,0r0,-377v0,-109,-45,-163,-134,-163"},"o":{"d":"307,-626v189,0,322,135,322,322v0,186,-134,321,-322,321v-187,0,-322,-136,-322,-321v0,-186,134,-322,322,-322xm307,-56v140,0,231,-108,231,-248v0,-141,-91,-248,-231,-248v-139,0,-230,107,-230,248v0,140,91,248,230,248"},"p":{"d":"301,-626v188,0,310,133,310,321v0,189,-121,322,-310,322v-65,0,-125,-22,-180,-65r0,292r-92,0r0,-855r92,0r0,49v55,-43,115,-64,180,-64xm301,-57v140,2,219,-104,219,-248v0,-143,-79,-248,-219,-248v-67,0,-127,28,-180,84r0,328v53,56,113,84,180,84","w":733},"q":{"d":"2,-305v0,-188,122,-321,309,-321v65,0,125,21,180,64r0,-49r92,0r0,855r-92,0r0,-292v-55,43,-115,65,-180,65v-188,0,-309,-133,-309,-322xm93,-305v0,144,79,250,218,248v67,0,127,-28,180,-84r0,-328v-53,-56,-113,-84,-180,-84v-139,0,-218,106,-218,248","w":733},"r":{"d":"466,-545v-140,0,-234,126,-234,271r0,195r138,0r0,79r-367,0r0,-79r137,0r0,-453r-137,0r0,-80r229,0r0,154v42,-113,120,-169,234,-169v62,0,111,7,146,22r-31,84v-33,-16,-72,-24,-115,-24"},"s":{"d":"302,-552v-94,-1,-194,27,-194,104v0,43,42,72,126,85v114,17,194,27,235,40v85,25,126,78,126,153v0,187,-283,220,-467,160v-55,-18,-101,-37,-136,-62r41,-78v87,63,177,94,269,94v135,0,202,-37,202,-111v0,-43,-42,-73,-127,-85v-122,-18,-200,-29,-234,-40v-85,-27,-127,-79,-127,-156v0,-210,402,-220,546,-106r-36,70v-55,-45,-129,-68,-224,-68"},"t":{"d":"382,-64v88,0,146,-66,149,-152r90,21v-12,122,-105,211,-239,211v-141,0,-242,-101,-242,-241r0,-307r-137,0r0,-79r137,0r0,-245r92,0r0,245r258,0r0,79r-258,0r0,307v-1,91,60,161,150,161"},"u":{"d":"258,-71v141,0,234,-123,234,-267r0,-274r92,0r0,612r-92,0r0,-154v-43,113,-121,169,-234,169v-151,0,-226,-83,-226,-250r0,-377r92,0r0,377v0,109,45,164,134,164"},"v":{"d":"611,-611r-240,611r-121,0r-250,-611r107,0r204,536r193,-536r107,0"},"w":{"d":"612,-612r-111,611r-105,0r-88,-448r-89,448r-105,0r-111,-611r95,0r79,490r86,-485r89,0r86,485r79,-490r95,0"},"x":{"d":"627,0r-252,0r0,-79r53,0r-120,-184r-120,184r50,0r0,79r-251,0r0,-79r96,0r168,-231r-161,-222r-88,0r0,-79r252,0r0,79r-58,0r112,174r113,-174r-61,0r0,-79r251,0r0,79r-84,0r-162,222r168,231r94,0r0,79"},"y":{"d":"606,-611r-292,750v-39,96,-185,132,-308,83r20,-92v88,24,161,41,190,-29r35,-84r-256,-628r107,0r206,528r191,-528r107,0"},"z":{"d":"580,0r-551,0r0,-79r413,-453r-333,0r0,164r-80,0r0,-243r536,0r0,79r-413,453r348,0r0,-163r80,0r0,242"},"{":{"d":"205,-367v58,9,113,79,113,147r0,280v-4,98,69,119,172,111r0,73r-61,0v-106,2,-183,-78,-183,-184r0,-280v0,-73,-41,-110,-122,-110r0,-74v81,0,122,-37,122,-111r0,-280v-1,-104,76,-186,183,-183r61,0r0,73v-101,-7,-172,12,-172,110r0,280v1,69,-54,137,-113,148"},"|":{"d":"353,123r-92,0r0,-1101r92,0r0,1101"},"}":{"d":"183,-978v107,-3,184,79,184,183r0,280v0,74,41,111,122,111r0,74v-81,0,-122,37,-122,110r0,280v1,106,-78,186,-184,184r-61,0r0,-73v102,7,172,-12,172,-111r0,-280v-1,-66,54,-138,114,-147v-60,-12,-114,-80,-114,-148r0,-280v4,-97,-70,-118,-172,-110r0,-73r61,0"},"~":{"d":"555,-900v-57,108,-182,138,-273,57v-61,-55,-139,-31,-178,42r-53,-31v57,-107,183,-137,273,-56v62,56,138,30,179,-43"},"\u20ac":{"d":"109,-561v24,-169,96,-311,261,-311v142,0,214,110,247,240r-77,33v-29,-129,-86,-193,-170,-193v-97,0,-157,77,-180,231r177,0r0,72r-184,0r0,123r184,0r0,73r-176,0v23,152,82,228,179,228v84,0,141,-64,170,-193r77,33v-33,131,-105,240,-247,240v-162,0,-238,-143,-261,-308r-109,0r0,-73r102,0v-3,-40,-3,-83,0,-123r-102,0r0,-72r109,0"},"\u00a4":{"d":"109,-561v24,-169,96,-311,261,-311v142,0,214,110,247,240r-77,33v-29,-129,-86,-193,-170,-193v-97,0,-157,77,-180,231r177,0r0,72r-184,0r0,123r184,0r0,73r-176,0v23,152,82,228,179,228v84,0,141,-64,170,-193r77,33v-33,131,-105,240,-247,240v-162,0,-238,-143,-261,-308r-109,0r0,-73r102,0v-3,-40,-3,-83,0,-123r-102,0r0,-72r109,0"},"\u00c7":{"d":"79,-429v0,198,64,364,237,364v109,0,181,-65,216,-194r85,33v-43,139,-126,218,-250,237v7,138,-73,234,-208,233r0,-76v94,1,136,-53,132,-155v-206,-18,-303,-201,-303,-442v0,-250,103,-443,328,-443v105,0,177,38,214,115r0,-100r80,0r0,282r-80,0v4,-121,-94,-220,-214,-217v-172,4,-237,166,-237,363"},"\u00d6":{"d":"306,-871v226,0,329,194,329,443v0,250,-103,443,-329,443v-226,0,-329,-195,-329,-443v0,-249,103,-443,329,-443xm306,-64v172,0,237,-166,237,-364v0,-198,-63,-364,-237,-364v-172,0,-237,167,-237,364v0,199,65,364,237,364xm489,-977r-122,0r0,-123r122,0r0,123xm245,-977r-123,0r0,-123r123,0r0,123"},"\u00dc":{"d":"306,-64v159,0,190,-116,191,-299r0,-493r92,0r0,493v0,252,-94,378,-283,378v-188,0,-282,-126,-282,-378r0,-493r91,0r0,493v1,184,32,299,191,299xm489,-977r-122,0r0,-123r122,0r0,123xm245,-977r-123,0r0,-123r123,0r0,123"},"\u00e7":{"d":"327,-57v91,0,172,-43,204,-102r63,44v-49,77,-125,121,-227,130v6,135,-74,230,-208,229r0,-76v93,1,136,-53,132,-153v-166,-11,-285,-143,-285,-320v0,-188,122,-322,310,-322v82,0,175,53,192,115r0,-100r79,0r0,244r-79,0v5,-96,-96,-185,-192,-185v-140,0,-219,105,-219,248v0,140,91,248,230,248"},"\u00f6":{"d":"307,-626v189,0,322,135,322,322v0,186,-134,321,-322,321v-187,0,-322,-136,-322,-321v0,-186,134,-322,322,-322xm307,-56v140,0,231,-108,231,-248v0,-141,-91,-248,-231,-248v-139,0,-230,107,-230,248v0,140,91,248,230,248xm489,-733r-122,0r0,-122r122,0r0,122xm245,-733r-123,0r0,-122r123,0r0,122"},"\u00fc":{"d":"258,-71v141,0,234,-123,234,-267r0,-274r92,0r0,612r-92,0r0,-154v-43,113,-121,169,-234,169v-151,0,-226,-83,-226,-250r0,-377r92,0r0,377v0,109,45,164,134,164xm489,-733r-122,0r0,-122r122,0r0,122xm245,-733r-123,0r0,-122r123,0r0,122"},"\u00a0":{}}});
